booster[0]:
0:[ptRatio<0.778858066] yes=1,no=2,missing=1
	1:[bTagDeepJetClosestJet<0.042571824] yes=3,no=4,missing=3
		3:[miniIsoCharged<0.0542136841] yes=7,no=8,missing=7
			7:leaf=0.0477839299
			8:leaf=-0.13008076
		4:[pTRel<8.41949272] yes=9,no=10,missing=9
			9:leaf=-0.181651816
			10:leaf=0.0331269726
	2:[bTagDeepJetClosestJet<0.1738372] yes=5,no=6,missing=5
		5:[miniIsoCharged<0.0816162974] yes=11,no=12,missing=11
			11:leaf=0.189579174
			12:leaf=0.0041984031
		6:[trackMultClosestJet<1.5] yes=13,no=14,missing=13
			13:leaf=0.0440276228
			14:leaf=-0.121927045
booster[1]:
0:[ptRatio<0.76791501] yes=1,no=2,missing=1
	1:[pTRel<6.21508694] yes=3,no=4,missing=3
		3:[bTagDeepJetClosestJet<0.0528249443] yes=7,no=8,missing=7
			7:leaf=-0.0706061795
			8:leaf=-0.170027405
		4:[sip3d<1.81362391] yes=9,no=10,missing=9
			9:leaf=0.108615451
			10:leaf=-0.0936413631
	2:[bTagDeepJetClosestJet<0.0969990641] yes=5,no=6,missing=5
		5:[miniIsoCharged<0.082535848] yes=11,no=12,missing=11
			11:leaf=0.173549235
			12:leaf=0.00807145145
		6:[ptRatio<0.859187603] yes=13,no=14,missing=13
			13:leaf=-0.0833419785
			14:leaf=0.0730655119
booster[2]:
0:[ptRatio<0.761653781] yes=1,no=2,missing=1
	1:[pTRel<6.30565786] yes=3,no=4,missing=3
		3:[bTagDeepJetClosestJet<0.0528249443] yes=7,no=8,missing=7
			7:leaf=-0.066786103
			8:leaf=-0.156990707
		4:[miniIsoCharged<0.0542081296] yes=9,no=10,missing=9
			9:leaf=0.100453489
			10:leaf=-0.0899603665
	2:[bTagDeepJetClosestJet<0.192639187] yes=5,no=6,missing=5
		5:[bTagDeepJetClosestJet<0.0495927334] yes=11,no=12,missing=11
			11:leaf=0.161375865
			12:leaf=0.0777562037
		6:[trackMultClosestJet<1.5] yes=13,no=14,missing=13
			13:leaf=0.0179443993
			14:leaf=-0.119312815
booster[3]:
0:[ptRatio<0.778858066] yes=1,no=2,missing=1
	1:[bTagDeepJetClosestJet<0.0399567224] yes=3,no=4,missing=3
		3:[miniIsoCharged<0.0542136841] yes=7,no=8,missing=7
			7:leaf=0.04869432
			8:leaf=-0.105603836
		4:[pTRel<9.61081314] yes=9,no=10,missing=9
			9:leaf=-0.140912637
			10:leaf=0.0560981408
	2:[bTagDeepJetClosestJet<0.288614064] yes=5,no=6,missing=5
		5:[bTagDeepJetClosestJet<0.0506516583] yes=11,no=12,missing=11
			11:leaf=0.151643157
			12:leaf=0.0746489763
		6:[bTagDeepJetClosestJet<0.7680251] yes=13,no=14,missing=13
			13:leaf=-0.00734859472
			14:leaf=-0.152564779
booster[4]:
0:[ptRatio<0.759503841] yes=1,no=2,missing=1
	1:[pTRel<6.21558523] yes=3,no=4,missing=3
		3:[bTagDeepJetClosestJet<0.0588364527] yes=7,no=8,missing=7
			7:leaf=-0.0603956878
			8:leaf=-0.138794795
		4:[sip3d<1.66270161] yes=9,no=10,missing=9
			9:leaf=0.0990938172
			10:leaf=-0.0756454915
	2:[bTagDeepJetClosestJet<0.1738372] yes=5,no=6,missing=5
		5:[miniIsoCharged<0.0963930264] yes=11,no=12,missing=11
			11:leaf=0.138763472
			12:leaf=-0.0553877652
		6:[ptRatio<0.858772814] yes=13,no=14,missing=13
			13:leaf=-0.0891882107
			14:leaf=0.0429827236
booster[5]:
0:[ptRatio<0.739145994] yes=1,no=2,missing=1
	1:[pTRel<7.30353737] yes=3,no=4,missing=3
		3:[bTagDeepJetClosestJet<0.0785913542] yes=7,no=8,missing=7
			7:leaf=-0.0635641217
			8:leaf=-0.133523241
		4:[miniIsoNeutral<0.026083855] yes=9,no=10,missing=9
			9:leaf=0.125756547
			10:leaf=-0.0465787612
	2:[bTagDeepJetClosestJet<0.0951057151] yes=5,no=6,missing=5
		5:[miniIsoCharged<0.0963930264] yes=11,no=12,missing=11
			11:leaf=0.132910758
			12:leaf=-0.0468960218
		6:[bTagDeepJetClosestJet<0.543126702] yes=13,no=14,missing=13
			13:leaf=0.0204152744
			14:leaf=-0.110889807
booster[6]:
0:[ptRatio<0.79216665] yes=1,no=2,missing=1
	1:[bTagDeepJetClosestJet<0.0496165901] yes=3,no=4,missing=3
		3:[miniIsoCharged<0.0812745392] yes=7,no=8,missing=7
			7:leaf=0.0375483446
			8:leaf=-0.103560247
		4:[pTRel<10.3129749] yes=9,no=10,missing=9
			9:leaf=-0.119981848
			10:leaf=0.0584942661
	2:[bTagDeepJetClosestJet<0.0509952754] yes=5,no=6,missing=5
		5:[puppiCombIso<0.11921382] yes=11,no=12,missing=11
			11:leaf=0.134606078
			12:leaf=0.0953806192
		6:[ptRatio<0.859187603] yes=13,no=14,missing=13
			13:leaf=-0.0495915599
			14:leaf=0.0794963464
booster[7]:
0:[ptRatio<0.733238697] yes=1,no=2,missing=1
	1:[pTRel<5.99398661] yes=3,no=4,missing=3
		3:[trackMultClosestJet<1.5] yes=7,no=8,missing=7
			7:leaf=-0.0426435508
			8:leaf=-0.118789546
		4:[sip3d<2.33923173] yes=9,no=10,missing=9
			9:leaf=0.0722816512
			10:leaf=-0.0905894265
	2:[bTagDeepJetClosestJet<0.17568703] yes=5,no=6,missing=5
		5:[miniIsoCharged<0.0628238916] yes=11,no=12,missing=11
			11:leaf=0.120597444
			12:leaf=-0.0154492278
		6:[puppiCombIso<0.0668864399] yes=13,no=14,missing=13
			13:leaf=0.0340145528
			14:leaf=-0.088208586
booster[8]:
0:[ptRatio<0.812368572] yes=1,no=2,missing=1
	1:[bTagDeepJetClosestJet<0.0329380855] yes=3,no=4,missing=3
		3:[puppiCombIso<0.20621559] yes=7,no=8,missing=7
			7:leaf=0.10505604
			8:leaf=-0.0331203006
		4:[pTRel<7.30353737] yes=9,no=10,missing=9
			9:leaf=-0.107826583
			10:leaf=0.00901291519
	2:[bTagDeepJetClosestJet<0.0971859992] yes=5,no=6,missing=5
		5:[pt<12.89081] yes=11,no=12,missing=11
			11:leaf=0.0185940228
			12:leaf=0.123225391
		6:[bTagDeepJetClosestJet<0.662194371] yes=13,no=14,missing=13
			13:leaf=0.0385566242
			14:leaf=-0.107151464
booster[9]:
0:[ptRatio<0.728745699] yes=1,no=2,missing=1
	1:[pTRel<5.59057426] yes=3,no=4,missing=3
		3:[trackMultClosestJet<1.5] yes=7,no=8,missing=7
			7:leaf=-0.0376941934
			8:leaf=-0.110588565
		4:[miniIsoCharged<0.0542081296] yes=9,no=10,missing=9
			9:leaf=0.0737996623
			10:leaf=-0.0709173828
	2:[bTagDeepJetClosestJet<0.0489840955] yes=5,no=6,missing=5
		5:[puppiCombIso<0.11921382] yes=11,no=12,missing=11
			11:leaf=0.121418528
			12:leaf=0.0688612685
		6:[pTRel<6.99499989] yes=13,no=14,missing=13
			13:leaf=-0.0417805165
			14:leaf=0.088490352
booster[10]:
0:[ptRatio<0.813689828] yes=1,no=2,missing=1
	1:[bTagDeepJetClosestJet<0.0495706908] yes=3,no=4,missing=3
		3:[pTRel<4.15048218] yes=7,no=8,missing=7
			7:leaf=-0.0381246693
			8:leaf=0.0863324106
		4:[pTRel<10.3129749] yes=9,no=10,missing=9
			9:leaf=-0.100875877
			10:leaf=0.0476778261
	2:[bTagDeepJetClosestJet<0.0971859992] yes=5,no=6,missing=5
		5:[pt<12.89081] yes=11,no=12,missing=11
			11:leaf=0.010037031
			12:leaf=0.115973368
		6:[bTagDeepJetClosestJet<0.662194371] yes=13,no=14,missing=13
			13:leaf=0.0351001695
			14:leaf=-0.0993786305
booster[11]:
0:[ptRatio<0.71467793] yes=1,no=2,missing=1
	1:[pTRel<5.37646151] yes=3,no=4,missing=3
		3:[bTagDeepJetClosestJet<0.113560036] yes=7,no=8,missing=7
			7:leaf=-0.0564962812
			8:leaf=-0.111723244
		4:[sip3d<1.7492609] yes=9,no=10,missing=9
			9:leaf=0.0663084239
			10:leaf=-0.0732305348
	2:[bTagDeepJetClosestJet<0.0364888534] yes=5,no=6,missing=5
		5:[miniIsoCharged<0.0963930264] yes=11,no=12,missing=11
			11:leaf=0.111142315
			12:leaf=-0.0300812777
		6:[puppiCombIso<0.0967362672] yes=13,no=14,missing=13
			13:leaf=0.054903876
			14:leaf=-0.0520498753
booster[12]:
0:[ptRatio<0.818086088] yes=1,no=2,missing=1
	1:[bTagDeepJetClosestJet<0.0786224455] yes=3,no=4,missing=3
		3:[miniIsoCharged<0.0642451569] yes=7,no=8,missing=7
			7:leaf=0.0390146971
			8:leaf=-0.0740201026
		4:[pTRel<9.97978687] yes=9,no=10,missing=9
			9:leaf=-0.0973496288
			10:leaf=0.04099847
	2:[bTagDeepJetClosestJet<0.0885458887] yes=5,no=6,missing=5
		5:[pt<14.3321915] yes=11,no=12,missing=11
			11:leaf=0.0237498321
			12:leaf=0.111276142
		6:[pTRel<7.11519098] yes=13,no=14,missing=13
			13:leaf=-0.0223392602
			14:leaf=0.0815226138
booster[13]:
0:[ptRatio<0.71467793] yes=1,no=2,missing=1
	1:[pTRel<4.91726637] yes=3,no=4,missing=3
		3:[trackMultClosestJet<1.5] yes=7,no=8,missing=7
			7:leaf=-0.027491523
			8:leaf=-0.099997662
		4:[sip3d<2.32554054] yes=9,no=10,missing=9
			9:leaf=0.054507412
			10:leaf=-0.0821010619
	2:[bTagDeepJetClosestJet<0.0258646626] yes=5,no=6,missing=5
		5:[miniIsoNeutral<0.0292449016] yes=11,no=12,missing=11
			11:leaf=0.111647747
			12:leaf=0.0534795187
		6:[miniIsoCharged<0.0520549193] yes=13,no=14,missing=13
			13:leaf=0.0345138758
			14:leaf=-0.0880972669
booster[14]:
0:[ptRatio<0.824942827] yes=1,no=2,missing=1
	1:[bTagDeepJetClosestJet<0.142168194] yes=3,no=4,missing=3
		3:[miniIsoNeutral<0.0445725247] yes=7,no=8,missing=7
			7:leaf=0.0388083719
			8:leaf=-0.0645070001
		4:[pTRel<13.0576391] yes=9,no=10,missing=9
			9:leaf=-0.0946635827
			10:leaf=0.0688510686
	2:[bTagDeepJetClosestJet<0.0514407009] yes=5,no=6,missing=5
		5:[pt<14.3321915] yes=11,no=12,missing=11
			11:leaf=0.0331451446
			12:leaf=0.108432166
		6:[puppiCombIso<0.0688653216] yes=13,no=14,missing=13
			13:leaf=0.0668952912
			14:leaf=-0.0319199562
booster[15]:
0:[puppiCombIso<0.15752548] yes=1,no=2,missing=1
	1:[bTagDeepJetClosestJet<0.477866173] yes=3,no=4,missing=3
		3:[miniIsoNeutral<0.037812002] yes=7,no=8,missing=7
			7:leaf=0.100496076
			8:leaf=0.00923721027
		4:[bTagDeepJetClosestJet<0.764062703] yes=9,no=10,missing=9
			9:leaf=-0.0274137091
			10:leaf=-0.111711383
	2:[pTRel<4.86302614] yes=5,no=6,missing=5
		5:[bTagDeepJetClosestJet<0.127692312] yes=11,no=12,missing=11
			11:leaf=-0.051869072
			12:leaf=-0.103929095
		6:[sip3d<2.32859421] yes=13,no=14,missing=13
			13:leaf=0.0535827838
			14:leaf=-0.0707629994
booster[16]:
0:[ptRatio<0.700543821] yes=1,no=2,missing=1
	1:[pTRel<4.56582737] yes=3,no=4,missing=3
		3:[trackMultClosestJet<1.5] yes=7,no=8,missing=7
			7:leaf=-0.0267510153
			8:leaf=-0.0942151174
		4:[miniIsoCharged<0.0805473775] yes=9,no=10,missing=9
			9:leaf=0.0487380363
			10:leaf=-0.0708663166
	2:[bTagDeepJetClosestJet<0.0258646626] yes=5,no=6,missing=5
		5:[miniIsoNeutral<0.0208412781] yes=11,no=12,missing=11
			11:leaf=0.106452323
			12:leaf=0.0525785983
		6:[miniIsoCharged<0.0503656492] yes=13,no=14,missing=13
			13:leaf=0.0294852462
			14:leaf=-0.0789644942
booster[17]:
0:[ptRatio<0.83900553] yes=1,no=2,missing=1
	1:[bTagDeepJetClosestJet<0.148670509] yes=3,no=4,missing=3
		3:[miniIsoCharged<0.0914910436] yes=7,no=8,missing=7
			7:leaf=0.0297524389
			8:leaf=-0.0727343038
		4:[pTRel<7.5212636] yes=9,no=10,missing=9
			9:leaf=-0.0901634172
			10:leaf=0.00134141895
	2:[pt<15.1912498] yes=5,no=6,missing=5
		5:[puppiCombIso<0.189766556] yes=11,no=12,missing=11
			11:leaf=0.0159034114
			12:leaf=-0.125095889
		6:[bTagDeepJetClosestJet<0.774807096] yes=13,no=14,missing=13
			13:leaf=0.0991070792
			14:leaf=-0.105484501
booster[18]:
0:[puppiCombIso<0.135150373] yes=1,no=2,missing=1
	1:[bTagDeepJetClosestJet<0.584360361] yes=3,no=4,missing=3
		3:[miniIsoNeutral<0.037812002] yes=7,no=8,missing=7
			7:leaf=0.0932244733
			8:leaf=0.00348457322
		4:[pTRel<14.1599455] yes=9,no=10,missing=9
			9:leaf=-0.0900409147
			10:leaf=0.101133339
	2:[pTRel<4.4822154] yes=5,no=6,missing=5
		5:[bTagDeepJetClosestJet<0.159054875] yes=11,no=12,missing=11
			11:leaf=-0.0437852442
			12:leaf=-0.0988308266
		6:[dxylog<-6.00323057] yes=13,no=14,missing=13
			13:leaf=0.0450839512
			14:leaf=-0.0731414184
booster[19]:
0:[bTagDeepJetClosestJet<0.0258596893] yes=1,no=2,missing=1
	1:[puppiCombIso<0.209851861] yes=3,no=4,missing=3
		3:[miniIsoNeutral<0.0190082081] yes=7,no=8,missing=7
			7:leaf=0.103954755
			8:leaf=0.0566294752
		4:[pTRel<3.54107094] yes=9,no=10,missing=9
			9:leaf=-0.05392747
			10:leaf=0.0652204603
	2:[miniIsoCharged<0.0501495339] yes=5,no=6,missing=5
		5:[miniIsoNeutral<0.0388870984] yes=11,no=12,missing=11
			11:leaf=0.0293395109
			12:leaf=-0.0719933435
		6:[miniIsoCharged<0.106957965] yes=13,no=14,missing=13
			13:leaf=-0.0650968775
			14:leaf=-0.0984971821
booster[20]:
0:[ptRatio<0.683752775] yes=1,no=2,missing=1
	1:[sip3d<1.39734578] yes=3,no=4,missing=3
		3:[pTRel<4.38143301] yes=7,no=8,missing=7
			7:leaf=-0.0449068248
			8:leaf=0.0546422005
		4:[bTagDeepJetClosestJet<0.334197521] yes=9,no=10,missing=9
			9:leaf=-0.0588422902
			10:leaf=-0.0961542726
	2:[bTagDeepJetClosestJet<0.288544357] yes=5,no=6,missing=5
		5:[pTRel<5.07295895] yes=11,no=12,missing=11
			11:leaf=0.0317340344
			12:leaf=0.0970785543
		6:[bTagDeepJetClosestJet<0.764067352] yes=13,no=14,missing=13
			13:leaf=-0.0192908887
			14:leaf=-0.103924513
booster[21]:
0:[ptRatio<0.859514952] yes=1,no=2,missing=1
	1:[miniIsoCharged<0.0640955865] yes=3,no=4,missing=3
		3:[miniIsoNeutral<0.0382196233] yes=7,no=8,missing=7
			7:leaf=0.040772751
			8:leaf=-0.0509337969
		4:[bTagDeepJetClosestJet<0.0503400303] yes=9,no=10,missing=9
			9:leaf=-0.0418176167
			10:leaf=-0.0919379294
	2:[pt<15.1912498] yes=5,no=6,missing=5
		5:[puppiCombIso<0.190860569] yes=11,no=12,missing=11
			11:leaf=0.0008319607
			12:leaf=-0.124735773
		6:[miniIsoCharged<0.0418381914] yes=13,no=14,missing=13
			13:leaf=0.0980335474
			14:leaf=-0.00644807657
booster[22]:
0:[bTagDeepJetClosestJet<0.0258596893] yes=1,no=2,missing=1
	1:[puppiCombIso<0.209851861] yes=3,no=4,missing=3
		3:[miniIsoNeutral<0.0190082081] yes=7,no=8,missing=7
			7:leaf=0.0995292887
			8:leaf=0.0497338846
		4:[pTRel<3.54107094] yes=9,no=10,missing=9
			9:leaf=-0.045283068
			10:leaf=0.0582614057
	2:[miniIsoCharged<0.0501495339] yes=5,no=6,missing=5
		5:[miniIsoNeutral<0.0388870984] yes=11,no=12,missing=11
			11:leaf=0.0225912202
			12:leaf=-0.0626219735
		6:[miniIsoCharged<0.106957965] yes=13,no=14,missing=13
			13:leaf=-0.0552606396
			14:leaf=-0.0918129459
booster[23]:
0:[pTRel<5.07869148] yes=1,no=2,missing=1
	1:[trackMultClosestJet<1.5] yes=3,no=4,missing=3
		3:[miniIsoNeutral<0.0560412519] yes=7,no=8,missing=7
			7:leaf=0.0448034368
			8:leaf=-0.0350721106
		4:[sip3d<1.10802698] yes=9,no=10,missing=9
			9:leaf=-0.0252390262
			10:leaf=-0.0830607116
	2:[miniIsoNeutral<0.0242441967] yes=5,no=6,missing=5
		5:[miniIsoCharged<0.148978144] yes=11,no=12,missing=11
			11:leaf=0.0912025049
			12:leaf=-0.0574336424
		6:[dxylog<-6.7028265] yes=13,no=14,missing=13
			13:leaf=0.0308853518
			14:leaf=-0.0632345453
booster[24]:
0:[bTagDeepJetClosestJet<0.0329774283] yes=1,no=2,missing=1
	1:[miniIsoNeutral<0.0261190347] yes=3,no=4,missing=3
		3:[miniIsoCharged<0.151611835] yes=7,no=8,missing=7
			7:leaf=0.0902268216
			8:leaf=-0.0515639596
		4:[ptRatio<0.652139544] yes=9,no=10,missing=9
			9:leaf=-0.0508828647
			10:leaf=0.026124021
	2:[miniIsoCharged<0.0699113905] yes=5,no=6,missing=5
		5:[pTRel<7.00584412] yes=11,no=12,missing=11
			11:leaf=-0.0346310474
			12:leaf=0.057705503
		6:[puppiCombIso<1.89130771] yes=13,no=14,missing=13
			13:leaf=-0.0854605511
			14:leaf=-0.00335420901
booster[25]:
0:[bTagDeepJetClosestJet<0.0258596893] yes=1,no=2,missing=1
	1:[puppiCombIso<0.206218705] yes=3,no=4,missing=3
		3:[puppiCombIso<0.0801274776] yes=7,no=8,missing=7
			7:leaf=0.0977397263
			8:leaf=0.0546473339
		4:[pTRel<5.20850372] yes=9,no=10,missing=9
			9:leaf=-0.0253341738
			10:leaf=0.0756814107
	2:[miniIsoNeutral<0.00996956415] yes=5,no=6,missing=5
		5:[miniIsoCharged<0.106515132] yes=11,no=12,missing=11
			11:leaf=0.0225372929
			12:leaf=-0.0755303726
		6:[miniIsoCharged<0.0520623326] yes=13,no=14,missing=13
			13:leaf=-0.0440262184
			14:leaf=-0.0860221088
booster[26]:
0:[pTRel<5.07869148] yes=1,no=2,missing=1
	1:[trackMultClosestJet<1.5] yes=3,no=4,missing=3
		3:[bTagDeepJetClosestJet<0.711328983] yes=7,no=8,missing=7
			7:leaf=0.0267502312
			8:leaf=-0.100129329
		4:[bTagDeepJetClosestJet<0.207518756] yes=9,no=10,missing=9
			9:leaf=-0.0345016718
			10:leaf=-0.0885946304
	2:[bTagDeepJetClosestJet<0.214586928] yes=5,no=6,missing=5
		5:[miniIsoNeutral<0.104057014] yes=11,no=12,missing=11
			11:leaf=0.0850039199
			12:leaf=-0.0379923433
		6:[ptRatio<0.319137037] yes=13,no=14,missing=13
			13:leaf=0.10111209
			14:leaf=-0.0362541489
booster[27]:
0:[ptRatio<0.866540074] yes=1,no=2,missing=1
	1:[sip3d<1.49606872] yes=3,no=4,missing=3
		3:[miniIsoCharged<0.127718806] yes=7,no=8,missing=7
			7:leaf=0.0307493359
			8:leaf=-0.0561634414
		4:[bTagDeepJetClosestJet<0.636089683] yes=9,no=10,missing=9
			9:leaf=-0.031375885
			10:leaf=-0.0919063836
	2:[pt<14.5815163] yes=5,no=6,missing=5
		5:[puppiCombIso<0.657251298] yes=11,no=12,missing=11
			11:leaf=-0.0204564761
			12:leaf=-0.16021578
		6:[bTagDeepJetClosestJet<0.136696696] yes=13,no=14,missing=13
			13:leaf=0.0933735371
			14:leaf=0.0158223212
booster[28]:
0:[pTRel<5.07869148] yes=1,no=2,missing=1
	1:[trackMultClosestJet<1.5] yes=3,no=4,missing=3
		3:[miniIsoNeutral<0.105356112] yes=7,no=8,missing=7
			7:leaf=0.032620132
			8:leaf=-0.0424164198
		4:[bTagDeepJetClosestJet<0.207518756] yes=9,no=10,missing=9
			9:leaf=-0.0313341394
			10:leaf=-0.084848173
	2:[miniIsoNeutral<0.0242441967] yes=5,no=6,missing=5
		5:[dxylog<-5.55023766] yes=11,no=12,missing=11
			11:leaf=0.085886918
			12:leaf=-0.00530714588
		6:[pt<57.4365921] yes=13,no=14,missing=13
			13:leaf=0.0138973398
			14:leaf=-0.0797083601
booster[29]:
0:[bTagDeepJetClosestJet<0.0258596893] yes=1,no=2,missing=1
	1:[miniIsoNeutral<0.0184403919] yes=3,no=4,missing=3
		3:[miniIsoCharged<0.154984131] yes=7,no=8,missing=7
			7:leaf=0.0876163989
			8:leaf=-0.0443016849
		4:[puppiCombIso<0.0977658778] yes=9,no=10,missing=9
			9:leaf=0.0793375745
			10:leaf=-0.0189866778
	2:[miniIsoNeutral<0.0133255776] yes=5,no=6,missing=5
		5:[miniIsoCharged<0.106515132] yes=11,no=12,missing=11
			11:leaf=0.0198070239
			12:leaf=-0.067872934
		6:[puppiCombIso<1.89226961] yes=13,no=14,missing=13
			13:leaf=-0.0600979514
			14:leaf=0.0398346372
booster[30]:
0:[pTRel<3.73717546] yes=1,no=2,missing=1
	1:[ptRatio<0.615716934] yes=3,no=4,missing=3
		3:[bTagDeepJetClosestJet<0.137332082] yes=7,no=8,missing=7
			7:leaf=-0.0511761904
			8:leaf=-0.0884228945
		4:[bTagDeepJetClosestJet<0.0950567201] yes=9,no=10,missing=9
			9:leaf=0.022369761
			10:leaf=-0.0425795279
	2:[bTagDeepJetClosestJet<0.304601073] yes=5,no=6,missing=5
		5:[miniIsoNeutral<0.0133259948] yes=11,no=12,missing=11
			11:leaf=0.0801732764
			12:leaf=0.0125779463
		6:[ptRatio<0.309889048] yes=13,no=14,missing=13
			13:leaf=0.101833783
			14:leaf=-0.0454209112
booster[31]:
0:[miniIsoCharged<0.0345667601] yes=1,no=2,missing=1
	1:[pTRel<9.15891361] yes=3,no=4,missing=3
		3:[bTagDeepJetClosestJet<0.487789571] yes=7,no=8,missing=7
			7:leaf=0.0222185832
			8:leaf=-0.0573137365
		4:[dxylog<-5.55023766] yes=9,no=10,missing=9
			9:leaf=0.0993668213
			10:leaf=-0.00405954476
	2:[sip3d<2.03662062] yes=5,no=6,missing=5
		5:[miniIsoCharged<0.138989091] yes=11,no=12,missing=11
			11:leaf=0.000712696637
			12:leaf=-0.0569994114
		6:[bTagDeepJetClosestJet<0.600660563] yes=13,no=14,missing=13
			13:leaf=-0.0562149249
			14:leaf=-0.0953556448
booster[32]:
0:[puppiCombIso<0.0967396796] yes=1,no=2,missing=1
	1:[bTagDeepJetClosestJet<0.764067352] yes=3,no=4,missing=3
		3:[bTagDeepJetClosestJet<0.0285104439] yes=7,no=8,missing=7
			7:leaf=0.0857971534
			8:leaf=0.0294207782
		4:leaf=-0.0944961756
	2:[sip3d<2.11234403] yes=5,no=6,missing=5
		5:[pTRel<3.36107635] yes=11,no=12,missing=11
			11:leaf=-0.0262844153
			12:leaf=0.0294672158
		6:[bTagDeepJetClosestJet<0.600920439] yes=13,no=14,missing=13
			13:leaf=-0.0343393907
			14:leaf=-0.0909550563
booster[33]:
0:[pTRel<9.41432762] yes=1,no=2,missing=1
	1:[trackMultClosestJet<1.5] yes=3,no=4,missing=3
		3:[puppiCombIso<0.317985117] yes=7,no=8,missing=7
			7:leaf=0.0341864042
			8:leaf=-0.0439887755
		4:[sip3d<1.26071978] yes=9,no=10,missing=9
			9:leaf=-0.0069083753
			10:leaf=-0.0585854128
	2:[dxylog<-5.55023766] yes=5,no=6,missing=5
		5:[miniIsoCharged<0.14730531] yes=11,no=12,missing=11
			11:leaf=0.0947114229
			12:leaf=-0.05705598
		6:[puppiCombIso<0.0470279604] yes=13,no=14,missing=13
			13:leaf=0.0618929937
			14:leaf=-0.0624729693
booster[34]:
0:[miniIsoNeutral<0.0133259948] yes=1,no=2,missing=1
	1:[miniIsoCharged<0.169271082] yes=3,no=4,missing=3
		3:[pt<14.7271156] yes=7,no=8,missing=7
			7:leaf=-0.0185648054
			8:leaf=0.0609837845
		4:leaf=-0.0655684173
	2:[sip3d<1.83332205] yes=5,no=6,missing=5
		5:[miniIsoCharged<0.032934662] yes=11,no=12,missing=11
			11:leaf=0.0181268137
			12:leaf=-0.043925181
		6:[pt<40.5492401] yes=13,no=14,missing=13
			13:leaf=-0.0506610572
			14:leaf=-0.0991543308
booster[35]:
0:[pTRel<9.40974331] yes=1,no=2,missing=1
	1:[trackMultClosestJet<1.5] yes=3,no=4,missing=3
		3:[bTagDeepJetClosestJet<0.711328983] yes=7,no=8,missing=7
			7:leaf=0.0264168829
			8:leaf=-0.08792077
		4:[sip3d<1.7492733] yes=9,no=10,missing=9
			9:leaf=-0.0123387761
			10:leaf=-0.0600854754
	2:[dxylog<-5.55023766] yes=5,no=6,missing=5
		5:[miniIsoCharged<0.0658607185] yes=11,no=12,missing=11
			11:leaf=0.095063135
			12:leaf=-0.0121873273
		6:[dzlog<-3.87615848] yes=13,no=14,missing=13
			13:leaf=0.0162507351
			14:leaf=-0.121267617
booster[36]:
0:[miniIsoNeutral<0.0548022129] yes=1,no=2,missing=1
	1:[miniIsoCharged<0.142126903] yes=3,no=4,missing=3
		3:[bTagDeepJetClosestJet<0.0276681483] yes=7,no=8,missing=7
			7:leaf=0.0677478239
			8:leaf=0.00809418876
		4:leaf=-0.0574678481
	2:[pt<55.2259254] yes=5,no=6,missing=5
		5:[ptRatio<0.645908594] yes=11,no=12,missing=11
			11:leaf=-0.0525104702
			12:leaf=0.00242859521
		6:[bTagDeepJetClosestJet<0.00632768124] yes=13,no=14,missing=13
			13:leaf=0.0429689549
			14:leaf=-0.106002107
booster[37]:
0:[pTRel<3.73717546] yes=1,no=2,missing=1
	1:[ptRatio<0.615606844] yes=3,no=4,missing=3
		3:[bTagDeepJetClosestJet<0.137332082] yes=7,no=8,missing=7
			7:leaf=-0.0419320874
			8:leaf=-0.0809087008
		4:[bTagDeepJetClosestJet<0.744022965] yes=9,no=10,missing=9
			9:leaf=0.00857516471
			10:leaf=-0.0939350724
	2:[bTagDeepJetClosestJet<0.015315352] yes=5,no=6,missing=5
		5:[miniIsoCharged<0.098505564] yes=11,no=12,missing=11
			11:leaf=0.0848690197
			12:leaf=-3.46511551e-05
		6:[miniIsoNeutral<0.0993339568] yes=13,no=14,missing=13
			13:leaf=0.0237424616
			14:leaf=-0.0492276996
booster[38]:
0:[pTRel<9.40974331] yes=1,no=2,missing=1
	1:[bTagDeepJetClosestJet<0.477778018] yes=3,no=4,missing=3
		3:[puppiCombIso<0.323721915] yes=7,no=8,missing=7
			7:leaf=0.0209442805
			8:leaf=-0.0299539026
		4:[ptRatio<0.267809272] yes=9,no=10,missing=9
			9:leaf=0.0771385357
			10:leaf=-0.0665952712
	2:[sip3d<1.68704367] yes=5,no=6,missing=5
		5:leaf=0.090426676
		6:[bTagDeepJetClosestJet<0.135793507] yes=13,no=14,missing=13
			13:leaf=0.0612999015
			14:leaf=-0.023947658
booster[39]:
0:[pTRel<3.61062193] yes=1,no=2,missing=1
	1:[ptRatio<0.615606844] yes=3,no=4,missing=3
		3:[bTagDeepJetClosestJet<0.137332082] yes=7,no=8,missing=7
			7:leaf=-0.0385538861
			8:leaf=-0.0786541626
		4:[pt<24.1161156] yes=9,no=10,missing=9
			9:leaf=0.0225544032
			10:leaf=-0.0342335775
	2:[bTagDeepJetClosestJet<0.015315352] yes=5,no=6,missing=5
		5:[miniIsoCharged<0.098505564] yes=11,no=12,missing=11
			11:leaf=0.0815600678
			12:leaf=-0.000246927812
		6:[miniIsoNeutral<0.00905968621] yes=13,no=14,missing=13
			13:leaf=0.0336968713
			14:leaf=-0.0167745836
booster[40]:
0:[miniIsoCharged<0.0984299928] yes=1,no=2,missing=1
	1:[miniIsoNeutral<0.10573712] yes=3,no=4,missing=3
		3:[dxylog<-5.58500338] yes=7,no=8,missing=7
			7:leaf=0.0391652361
			8:leaf=-0.021078309
		4:[pt<33.444458] yes=9,no=10,missing=9
			9:leaf=-0.0237733107
			10:leaf=-0.0742267966
	2:[sip3d<1.49644113] yes=5,no=6,missing=5
		5:[puppiCombIso<1.61516929] yes=11,no=12,missing=11
			11:leaf=-0.0318023972
			12:leaf=0.0765525475
		6:leaf=-0.0691076219
booster[41]:
0:[ptRatio<0.9029392] yes=1,no=2,missing=1
	1:[sip3d<1.26069713] yes=3,no=4,missing=3
		3:[pTRel<10.2718658] yes=7,no=8,missing=7
			7:leaf=0.00821289327
			8:leaf=0.0855153725
		4:[bTagDeepJetClosestJet<0.691061974] yes=9,no=10,missing=9
			9:leaf=-0.0144974561
			10:leaf=-0.0751696229
	2:[pt<23.3427467] yes=5,no=6,missing=5
		5:[puppiCombIso<0.127875447] yes=11,no=12,missing=11
			11:leaf=0.017680876
			12:leaf=-0.0836751685
		6:leaf=0.0899594948
booster[42]:
0:[miniIsoNeutral<0.0133259948] yes=1,no=2,missing=1
	1:[pt<14.7271156] yes=3,no=4,missing=3
		3:[puppiCombIso<0.493734658] yes=7,no=8,missing=7
			7:leaf=-0.00294541172
			8:leaf=-0.0643134192
		4:[miniIsoCharged<0.185754389] yes=9,no=10,missing=9
			9:leaf=0.0477829017
			10:leaf=-0.0558415949
	2:[pt<57.2335129] yes=5,no=6,missing=5
		5:[sip3d<0.817904949] yes=11,no=12,missing=11
			11:leaf=0.0254495293
			12:leaf=-0.0298079681
		6:[ptRatio<0.903050661] yes=13,no=14,missing=13
			13:leaf=-0.0899372026
			14:leaf=0.0669512078
booster[43]:
0:[pTRel<3.30844307] yes=1,no=2,missing=1
	1:[ptRatio<0.594699144] yes=3,no=4,missing=3
		3:leaf=-0.0543236546
		4:[pt<23.0350876] yes=9,no=10,missing=9
			9:leaf=0.0179921165
			10:leaf=-0.0335481055
	2:[dxylog<-5.57693958] yes=5,no=6,missing=5
		5:[puppiCombIso<0.0678471625] yes=11,no=12,missing=11
			11:leaf=0.0774817616
			12:leaf=0.0189952608
		6:[bTagDeepJetClosestJet<0.829246283] yes=13,no=14,missing=13
			13:leaf=-0.00579976197
			14:leaf=-0.0929552391
booster[44]:
0:[pTRel<9.40974331] yes=1,no=2,missing=1
	1:[bTagDeepJetClosestJet<0.584129453] yes=3,no=4,missing=3
		3:[miniIsoNeutral<0.119638175] yes=7,no=8,missing=7
			7:leaf=0.00982729718
			8:leaf=-0.0373728387
		4:[ptRatio<0.309808135] yes=9,no=10,missing=9
			9:leaf=0.0703329742
			10:leaf=-0.0695185587
	2:[bTagDeepJetClosestJet<0.0359125435] yes=5,no=6,missing=5
		5:leaf=0.091353789
		6:[dzlog<-3.87158251] yes=13,no=14,missing=13
			13:leaf=0.0355579183
			14:leaf=-0.0861509889
booster[45]:
0:[miniIsoCharged<0.128319263] yes=1,no=2,missing=1
	1:[dxylog<-6.65697384] yes=3,no=4,missing=3
		3:[pTRel<9.36142826] yes=7,no=8,missing=7
			7:leaf=0.0190397743
			8:leaf=0.0860283002
		4:[bTagDeepJetClosestJet<0.793824077] yes=9,no=10,missing=9
			9:leaf=-0.00296628708
			10:leaf=-0.0763663575
	2:leaf=-0.0480638482
booster[46]:
0:[puppiCombIso<0.0609521195] yes=1,no=2,missing=1
	1:[bTagDeepJetClosestJet<0.773684144] yes=3,no=4,missing=3
		3:[eta<-2.16604185] yes=7,no=8,missing=7
			7:leaf=-0.0733205304
			8:leaf=0.0581269152
		4:leaf=-0.0892982706
	2:[dxylog<-5.96149635] yes=5,no=6,missing=5
		5:[puppiCombIso<1.72122681] yes=11,no=12,missing=11
			11:leaf=-0.00250144093
			12:leaf=0.087335214
		6:[bTagDeepJetClosestJet<0.661265731] yes=13,no=14,missing=13
			13:leaf=-0.0221259166
			14:leaf=-0.0775479004
booster[47]:
0:[miniIsoCharged<0.128319263] yes=1,no=2,missing=1
	1:[miniIsoNeutral<0.10573712] yes=3,no=4,missing=3
		3:[pTRel<10.3342924] yes=7,no=8,missing=7
			7:leaf=0.011119972
			8:leaf=0.0704119429
		4:[pt<33.444458] yes=9,no=10,missing=9
			9:leaf=-0.0153426109
			10:leaf=-0.0648694485
	2:leaf=-0.0444295816
booster[48]:
0:[pTRel<3.30844307] yes=1,no=2,missing=1
	1:[trackMultClosestJet<2.5] yes=3,no=4,missing=3
		3:[sip3d<0.601513207] yes=7,no=8,missing=7
			7:leaf=0.0437356085
			8:leaf=-0.013975285
		4:leaf=-0.0549295209
	2:[bTagDeepJetClosestJet<0.015315352] yes=5,no=6,missing=5
		5:[ptRatio<0.91665566] yes=11,no=12,missing=11
			11:leaf=0.0365001932
			12:leaf=0.0943638086
		6:[pt<31.7169724] yes=13,no=14,missing=13
			13:leaf=0.0263834279
			14:leaf=-0.0236986242
booster[49]:
0:[bTagDeepJetClosestJet<0.0785788298] yes=1,no=2,missing=1
	1:[puppiCombIso<0.0534936599] yes=3,no=4,missing=3
		3:[eta<-2.16604185] yes=7,no=8,missing=7
			7:leaf=-0.0579092577
			8:leaf=0.0740262643
		4:[miniIsoNeutral<0.0113159791] yes=9,no=10,missing=9
			9:leaf=0.025752252
			10:leaf=-0.00938262418
	2:[ptRatio<0.293433368] yes=5,no=6,missing=5
		5:[sip3d<3.38934708] yes=11,no=12,missing=11
			11:leaf=0.115978122
			12:leaf=-0.0432031751
		6:[bTagDeepJetClosestJet<0.712085664] yes=13,no=14,missing=13
			13:leaf=-0.0150498198
			14:leaf=-0.0646339282
booster[50]:
0:[miniIsoCharged<0.153801411] yes=1,no=2,missing=1
	1:[miniIsoNeutral<0.118942901] yes=3,no=4,missing=3
		3:[bTagDeepJetClosestJet<0.00998581015] yes=7,no=8,missing=7
			7:leaf=0.0673199967
			8:leaf=0.00880708825
		4:[pt<33.444458] yes=9,no=10,missing=9
			9:leaf=-0.0166562218
			10:leaf=-0.0605816431
	2:leaf=-0.0461961366
booster[51]:
0:[pTRel<3.73717546] yes=1,no=2,missing=1
	1:[ptRatio<0.571498036] yes=3,no=4,missing=3
		3:leaf=-0.0477144569
		4:[pt<40.7407265] yes=9,no=10,missing=9
			9:leaf=0.00944817811
			10:leaf=-0.0559968725
	2:[bTagDeepJetClosestJet<0.0100236004] yes=5,no=6,missing=5
		5:leaf=0.0670764074
		6:[pt<31.7175751] yes=13,no=14,missing=13
			13:leaf=0.0283704009
			14:leaf=-0.0116725797
booster[52]:
0:[dxylog<-6.65697384] yes=1,no=2,missing=1
	1:[pTRel<10.6478767] yes=3,no=4,missing=3
		3:[miniIsoCharged<0.012797894] yes=7,no=8,missing=7
			7:leaf=0.0254670978
			8:leaf=-0.00922225136
		4:[pt<18.6642609] yes=9,no=10,missing=9
			9:leaf=-0.0933177099
			10:leaf=0.0861678645
	2:[bTagDeepJetClosestJet<0.712038219] yes=5,no=6,missing=5
		5:[miniIsoNeutral<0.00650849473] yes=11,no=12,missing=11
			11:leaf=0.0111144623
			12:leaf=-0.0257867556
		6:[ptRatio<0.253383815] yes=13,no=14,missing=13
			13:leaf=0.0745362192
			14:leaf=-0.0792661905
booster[53]:
0:[miniIsoCharged<0.196657151] yes=1,no=2,missing=1
	1:[miniIsoNeutral<0.0584901199] yes=3,no=4,missing=3
		3:[pt<13.0468006] yes=7,no=8,missing=7
			7:leaf=-0.0262672938
			8:leaf=0.0247575995
		4:[pt<40.3599358] yes=9,no=10,missing=9
			9:leaf=-0.00560830208
			10:leaf=-0.0626137331
	2:leaf=-0.0515160337
booster[54]:
0:[pTRel<7.78254032] yes=1,no=2,missing=1
	1:[pt<42.2725334] yes=3,no=4,missing=3
		3:[ptRatio<0.594699144] yes=7,no=8,missing=7
			7:leaf=-0.0213821735
			8:leaf=0.0123665174
		4:[bTagDeepJetClosestJet<0.0111069456] yes=9,no=10,missing=9
			9:leaf=0.0279074404
			10:leaf=-0.0798681751
	2:[pt<21.501358] yes=5,no=6,missing=5
		5:leaf=-0.0443576761
		6:[miniIsoNeutral<0.00659087906] yes=13,no=14,missing=13
			13:leaf=0.0726391003
			14:leaf=0.0096001206
booster[55]:
0:[sip3d<1.26074147] yes=1,no=2,missing=1
	1:[puppiCombIso<0.0609521195] yes=3,no=4,missing=3
		3:leaf=0.0732740238
		4:[puppiCombIso<1.72101343] yes=9,no=10,missing=9
			9:leaf=0.00336962449
			10:leaf=0.0855708346
	2:[bTagDeepJetClosestJet<0.690175891] yes=5,no=6,missing=5
		5:[pTRel<3.59540462] yes=11,no=12,missing=11
			11:leaf=-0.0213033035
			12:leaf=0.0152953658
		6:[ptRatio<0.253383815] yes=13,no=14,missing=13
			13:leaf=0.0642558783
			14:leaf=-0.0730137154
booster[56]:
0:[miniIsoCharged<0.186514899] yes=1,no=2,missing=1
	1:[dxylog<-6.65697384] yes=3,no=4,missing=3
		3:[pTRel<9.36584282] yes=7,no=8,missing=7
			7:leaf=0.0115786344
			8:leaf=0.0747515485
		4:[bTagDeepJetClosestJet<0.793690503] yes=9,no=10,missing=9
			9:leaf=-0.00355990091
			10:leaf=-0.0643237978
	2:leaf=-0.0451623648
booster[57]:
0:[bTagDeepJetClosestJet<0.0258596893] yes=1,no=2,missing=1
	1:[dzlog<-5.12558413] yes=3,no=4,missing=3
		3:[puppiCombIso<0.0992868021] yes=7,no=8,missing=7
			7:leaf=0.0649841726
			8:leaf=0.0141700031
		4:[ptRatio<0.805394173] yes=9,no=10,missing=9
			9:leaf=-0.0189155098
			10:leaf=-0.126449764
	2:[miniIsoNeutral<0.105469853] yes=5,no=6,missing=5
		5:[puppiCombIso<1.5283823] yes=11,no=12,missing=11
			11:leaf=-0.00610062573
			12:leaf=0.065953128
		6:leaf=-0.0396421738
booster[58]:
0:[trackMultClosestJet<1.5] yes=1,no=2,missing=1
	1:[puppiCombIso<0.383590996] yes=3,no=4,missing=3
		3:[eta<-1.91469276] yes=7,no=8,missing=7
			7:leaf=-0.0426145196
			8:leaf=0.0296674129
		4:leaf=-0.0421008505
	2:[pTRel<2.68767428] yes=5,no=6,missing=5
		5:[ptRatio<0.566595435] yes=11,no=12,missing=11
			11:leaf=-0.0616510212
			12:leaf=-0.0161981639
		6:[ptRatio<0.309951991] yes=13,no=14,missing=13
			13:leaf=0.0547525063
			14:leaf=-0.00648131315
booster[59]:
0:[bTagDeepJetClosestJet<0.274878681] yes=1,no=2,missing=1
	1:[pTRel<9.40974331] yes=3,no=4,missing=3
		3:[ptRatio<0.776032567] yes=7,no=8,missing=7
			7:leaf=0.0124835158
			8:leaf=-0.021023972
		4:[miniIsoCharged<0.0252940543] yes=9,no=10,missing=9
			9:leaf=0.0754974112
			10:leaf=-0.0132421283
	2:[ptRatio<0.309808135] yes=5,no=6,missing=5
		5:[sip3d<3.38497019] yes=11,no=12,missing=11
			11:leaf=0.106405668
			12:leaf=-0.040828187
		6:[puppiCombIso<0.0238771867] yes=13,no=14,missing=13
			13:leaf=0.0250223335
			14:leaf=-0.0405116193
booster[60]:
0:[miniIsoCharged<0.196657151] yes=1,no=2,missing=1
	1:[miniIsoNeutral<0.173440993] yes=3,no=4,missing=3
		3:[bTagDeepJetClosestJet<0.0153912688] yes=7,no=8,missing=7
			7:leaf=0.0393154733
			8:leaf=0.00279713119
		4:leaf=-0.0329920053
	2:leaf=-0.0441978872
booster[61]:
0:[dzlog<-5.13709641] yes=1,no=2,missing=1
	1:[pTRel<10.3342924] yes=3,no=4,missing=3
		3:[bTagDeepJetClosestJet<0.0684594214] yes=7,no=8,missing=7
			7:leaf=0.0132680777
			8:leaf=-0.0181536563
		4:[miniIsoCharged<0.0600745417] yes=9,no=10,missing=9
			9:leaf=0.085142076
			10:leaf=-0.0208033398
	2:[bTagDeepJetClosestJet<0.767292142] yes=5,no=6,missing=5
		5:[miniIsoNeutral<0.00204813364] yes=11,no=12,missing=11
			11:leaf=0.0126890261
			12:leaf=-0.0310152974
		6:leaf=-0.068871893
booster[62]:
0:[pTRel<3.30844307] yes=1,no=2,missing=1
	1:[ptRatio<0.546478033] yes=3,no=4,missing=3
		3:leaf=-0.0435153432
		4:[ptRatio<0.77769506] yes=9,no=10,missing=9
			9:leaf=0.0124548823
			10:leaf=-0.0314189568
	2:[pt<12.2617779] yes=5,no=6,missing=5
		5:[pTRel<4.19380522] yes=11,no=12,missing=11
			11:leaf=0.0106646754
			12:leaf=-0.100278609
		6:[pt<31.7175751] yes=13,no=14,missing=13
			13:leaf=0.0307334904
			14:leaf=-0.00351793366
booster[63]:
0:[miniIsoCharged<0.196657151] yes=1,no=2,missing=1
	1:[miniIsoNeutral<0.173440993] yes=3,no=4,missing=3
		3:[pt<10.771246] yes=7,no=8,missing=7
			7:leaf=-0.0481312349
			8:leaf=0.0107635781
		4:leaf=-0.0296028499
	2:leaf=-0.0408220254
booster[64]:
0:[trackMultClosestJet<1.5] yes=1,no=2,missing=1
	1:[eta<-1.91333294] yes=3,no=4,missing=3
		3:leaf=-0.0445476063
		4:[puppiCombIso<0.37412858] yes=9,no=10,missing=9
			9:leaf=0.0262610856
			10:leaf=-0.0323537961
	2:[pTRel<2.68767428] yes=5,no=6,missing=5
		5:[ptRatio<0.546124697] yes=11,no=12,missing=11
			11:leaf=-0.0576953255
			12:leaf=-0.0152843269
		6:[ptRatio<0.331332833] yes=13,no=14,missing=13
			13:leaf=0.0442945585
			14:leaf=-0.0067380066
booster[65]:
0:[dxylog<-5.57693958] yes=1,no=2,missing=1
	1:[pTRel<10.7163715] yes=3,no=4,missing=3
		3:[pt<41.9421005] yes=7,no=8,missing=7
			7:leaf=0.00834648404
			8:leaf=-0.0323437564
		4:[miniIsoCharged<0.0658607185] yes=9,no=10,missing=9
			9:leaf=0.0752725825
			10:leaf=-0.0203825533
	2:[bTagDeepJetClosestJet<0.827762246] yes=5,no=6,missing=5
		5:[pt<31.8133316] yes=11,no=12,missing=11
			11:leaf=0.00152587413
			12:leaf=-0.0489028059
		6:leaf=-0.0821634755
booster[66]:
0:[sip3d<0.919755518] yes=1,no=2,missing=1
	1:[pTRel<10.3344316] yes=3,no=4,missing=3
		3:[pt<36.7867584] yes=7,no=8,missing=7
			7:leaf=0.0220201835
			8:leaf=-0.0226705391
		4:leaf=0.0793811083
	2:[miniIsoNeutral<0.00106188131] yes=5,no=6,missing=5
		5:[pt<15.6307621] yes=11,no=12,missing=11
			11:leaf=-0.0227105655
			12:leaf=0.0266769826
		6:[pt<24.4798317] yes=13,no=14,missing=13
			13:leaf=-0.00123767601
			14:leaf=-0.0382233113
booster[67]:
0:[bTagDeepJetClosestJet<0.0108676944] yes=1,no=2,missing=1
	1:[puppiCombIso<0.0801274776] yes=3,no=4,missing=3
		3:leaf=0.0787389949
		4:leaf=0.00996785704
	2:[pt<41.9419746] yes=5,no=6,missing=5
		5:[ptRatio<0.776217937] yes=11,no=12,missing=11
			11:leaf=0.0089808777
			12:leaf=-0.0185013283
		6:[pTRel<7.78317356] yes=13,no=14,missing=13
			13:leaf=-0.0668060035
			14:leaf=0.0117096556
booster[68]:
0:[miniIsoCharged<0.223101735] yes=1,no=2,missing=1
	1:[pTRel<4.80591583] yes=3,no=4,missing=3
		3:[bTagDeepJetClosestJet<0.731124282] yes=7,no=8,missing=7
			7:leaf=-0.000496864785
			8:leaf=-0.062917918
		4:[pt<14.6560574] yes=9,no=10,missing=9
			9:leaf=-0.0518646128
			10:leaf=0.0236932542
	2:leaf=-0.0428829491
booster[69]:
0:[dxylog<-6.75942039] yes=1,no=2,missing=1
	1:[ptRatio<0.926956654] yes=3,no=4,missing=3
		3:[ptRatio<0.776032567] yes=7,no=8,missing=7
			7:leaf=0.0150843486
			8:leaf=-0.0242049303
		4:leaf=0.0692848712
	2:[bTagDeepJetClosestJet<0.824906826] yes=5,no=6,missing=5
		5:[eta<-2.14566517] yes=11,no=12,missing=11
			11:leaf=-0.0721189454
			12:leaf=-0.00183713925
		6:[ptRatio<0.253383815] yes=13,no=14,missing=13
			13:leaf=0.0825162157
			14:leaf=-0.074389264
booster[70]:
0:[miniIsoCharged<0.0100780651] yes=1,no=2,missing=1
	1:[pt<15.1912498] yes=3,no=4,missing=3
		3:[ptRatio<0.850713253] yes=7,no=8,missing=7
			7:leaf=-0.00209645578
			8:leaf=-0.0805655643
		4:[ptRatio<0.904649556] yes=9,no=10,missing=9
			9:leaf=0.0131848305
			10:leaf=0.0646959767
	2:[pt<78.0972443] yes=5,no=6,missing=5
		5:[pTRel<7.78283119] yes=11,no=12,missing=11
			11:leaf=-0.0113009857
			12:leaf=0.0395413153
		6:leaf=-0.10700687
booster[71]:
0:[miniIsoCharged<0.260535955] yes=1,no=2,missing=1
	1:[miniIsoNeutral<0.103926435] yes=3,no=4,missing=3
		3:[ptRatio<0.772410274] yes=7,no=8,missing=7
			7:leaf=0.0174253397
			8:leaf=-0.0102911126
		4:leaf=-0.01851747
	2:leaf=-0.0476150848
booster[72]:
0:[trackMultClosestJet<1.5] yes=1,no=2,missing=1
	1:[puppiCombIso<0.383590996] yes=3,no=4,missing=3
		3:[bTagDeepJetClosestJet<0.764067352] yes=7,no=8,missing=7
			7:leaf=0.0204486623
			8:leaf=-0.0788883492
		4:leaf=-0.0347567908
	2:[pTRel<1.98566532] yes=5,no=6,missing=5
		5:leaf=-0.0339932926
		6:[pt<57.3808098] yes=13,no=14,missing=13
			13:leaf=0.00473646214
			14:leaf=-0.0389317349
booster[73]:
0:[dzlog<-3.88318968] yes=1,no=2,missing=1
	1:[pTRel<10.7163715] yes=3,no=4,missing=3
		3:[pt<42.5880051] yes=7,no=8,missing=7
			7:leaf=0.00478750141
			8:leaf=-0.0306324158
		4:[pt<24.6960869] yes=9,no=10,missing=9
			9:leaf=-0.0513867326
			10:leaf=0.0605309866
	2:[sip3d<3.01328683] yes=5,no=6,missing=5
		5:leaf=-0.107196979
		6:[puppiCombIso<0.015226718] yes=13,no=14,missing=13
			13:leaf=0.0771342516
			14:leaf=-0.0298652407
booster[74]:
0:[bTagDeepJetClosestJet<0.00998581015] yes=1,no=2,missing=1
	1:[pt<21.1670952] yes=3,no=4,missing=3
		3:leaf=-0.040358685
		4:[miniIsoCharged<0.0194634795] yes=9,no=10,missing=9
			9:leaf=0.0710273832
			10:leaf=0.00371215679
	2:[pt<30.9747009] yes=5,no=6,missing=5
		5:[puppiCombIso<0.389781862] yes=11,no=12,missing=11
			11:leaf=0.0135063929
			12:leaf=-0.0136213917
		6:[pTRel<5.00766706] yes=13,no=14,missing=13
			13:leaf=-0.0545695014
			14:leaf=0.00316299242
booster[75]:
0:[pt<10.771246] yes=1,no=2,missing=1
	1:leaf=-0.0416227393
	2:[miniIsoNeutral<0.0100842714] yes=5,no=6,missing=5
		5:[eta<-1.29163551] yes=11,no=12,missing=11
			11:leaf=-0.0162668377
			12:leaf=0.0213715024
		6:[pt<57.3808098] yes=13,no=14,missing=13
			13:leaf=-0.00147680391
			14:leaf=-0.0651095659
booster[76]:
0:[dzlog<-5.13709641] yes=1,no=2,missing=1
	1:[pTRel<10.3342924] yes=3,no=4,missing=3
		3:[ptRatio<0.772475839] yes=7,no=8,missing=7
			7:leaf=0.0108100278
			8:leaf=-0.0181037504
		4:[miniIsoCharged<0.0504244566] yes=9,no=10,missing=9
			9:leaf=0.077656053
			10:leaf=-0.0178291518
	2:[bTagDeepJetClosestJet<0.767292142] yes=5,no=6,missing=5
		5:[sip3d<2.46728039] yes=11,no=12,missing=11
			11:leaf=-0.0361330584
			12:leaf=0.00620286074
		6:leaf=-0.0610075668
booster[77]:
0:[eta<-2.34789491] yes=1,no=2,missing=1
	1:leaf=-0.100296594
	2:[puppiCombIso<0.0618890673] yes=5,no=6,missing=5
		5:[bTagDeepJetClosestJet<0.861480057] yes=9,no=10,missing=9
			9:leaf=0.0294926371
			10:leaf=-0.0850389823
		6:[pt<78.0972443] yes=11,no=12,missing=11
			11:leaf=-0.000714218302
			12:leaf=-0.0666193739
booster[78]:
0:[dxylog<-4.89455271] yes=1,no=2,missing=1
	1:[pTRel<4.26473236] yes=3,no=4,missing=3
		3:[ptRatio<0.615606844] yes=7,no=8,missing=7
			7:leaf=-0.0239558481
			8:leaf=0.00569417281
		4:[pt<12.2617779] yes=9,no=10,missing=9
			9:leaf=-0.07552322
			10:leaf=0.0188147556
	2:leaf=-0.0331027918
booster[79]:
0:[bTagDeepJetClosestJet<0.0108676944] yes=1,no=2,missing=1
	1:[sip3d<1.75556493] yes=3,no=4,missing=3
		3:[puppiCombIso<0.0801274776] yes=7,no=8,missing=7
			7:leaf=0.0861397684
			8:leaf=0.0157420132
		4:leaf=-0.0666320547
	2:[pt<30.9747009] yes=5,no=6,missing=5
		5:[ptRatio<0.774418354] yes=11,no=12,missing=11
			11:leaf=0.011015214
			12:leaf=-0.0164063778
		6:[pTRel<7.78317356] yes=13,no=14,missing=13
			13:leaf=-0.0406814478
			14:leaf=0.0182910841
booster[80]:
0:[miniIsoCharged<0.260535955] yes=1,no=2,missing=1
	1:[dxylog<-6.75942039] yes=3,no=4,missing=3
		3:leaf=0.011361951
		4:leaf=-0.00714653125
	2:leaf=-0.0435421318
booster[81]:
0:[eta<-2.3073926] yes=1,no=2,missing=1
	1:leaf=-0.07538528
	2:[puppiCombIso<0.0302561317] yes=5,no=6,missing=5
		5:[bTagDeepJetClosestJet<0.858843446] yes=11,no=12,missing=11
			11:leaf=0.0386995561
			12:leaf=-0.0858834162
		6:[pt<63.0342331] yes=13,no=14,missing=13
			13:leaf=0.00101967913
			14:leaf=-0.0418949462
booster[82]:
0:[dzlog<-3.88318968] yes=1,no=2,missing=1
	1:[pTRel<9.40974331] yes=3,no=4,missing=3
		3:[eta<-2.3071785] yes=7,no=8,missing=7
			7:leaf=-0.0950402394
			8:leaf=0.000599914638
		4:leaf=0.0343136266
	2:leaf=-0.0300861001
booster[83]:
0:[pt<10.771246] yes=1,no=2,missing=1
	1:leaf=-0.0372623503
	2:[bTagDeepJetClosestJet<0.0839729086] yes=5,no=6,missing=5
		5:[ptRatio<0.47601229] yes=11,no=12,missing=11
			11:leaf=-0.0254428331
			12:leaf=0.0159022715
		6:[ptRatio<0.337735981] yes=13,no=14,missing=13
			13:leaf=0.048769962
			14:leaf=-0.0160019156
booster[84]:
0:[miniIsoCharged<0.260535955] yes=1,no=2,missing=1
	1:[ptRatio<0.774269938] yes=3,no=4,missing=3
		3:[ptRatio<0.650884211] yes=7,no=8,missing=7
			7:leaf=-0.00545506505
			8:leaf=0.0259923469
		4:[eta<1.73407209] yes=9,no=10,missing=9
			9:leaf=-0.00418500416
			10:leaf=-0.0818620622
	2:leaf=-0.0406904295
booster[85]:
0:[eta<-1.25678134] yes=1,no=2,missing=1
	1:leaf=-0.0158369038
	2:[miniIsoNeutral<0.0510805324] yes=5,no=6,missing=5
		5:[eta<1.23954368] yes=11,no=12,missing=11
			11:leaf=0.0206222292
			12:leaf=-0.013908634
		6:leaf=-0.0107904123
booster[86]:
0:[trackMultClosestJet<1.5] yes=1,no=2,missing=1
	1:[eta<-1.88200629] yes=3,no=4,missing=3
		3:leaf=-0.0339374207
		4:[bTagDeepJetClosestJet<0.79409194] yes=9,no=10,missing=9
			9:leaf=0.0165037643
			10:leaf=-0.0766051784
	2:[pTRel<2.66704464] yes=5,no=6,missing=5
		5:leaf=-0.023579888
		6:[ptRatio<0.74681294] yes=13,no=14,missing=13
			13:leaf=0.0110289296
			14:leaf=-0.0247202888
booster[87]:
0:[bTagDeepJetClosestJet<0.0108676944] yes=1,no=2,missing=1
	1:[dxylog<-7.16065407] yes=3,no=4,missing=3
		3:leaf=0.0453307517
		4:[bTagDeepJetClosestJet<0.00375027256] yes=9,no=10,missing=9
			9:leaf=-0.118602574
			10:leaf=0.00912973844
	2:[pt<78.0931473] yes=5,no=6,missing=5
		5:leaf=-0.000643017702
		6:[ptRatio<0.886295199] yes=13,no=14,missing=13
			13:leaf=-0.0754307806
			14:leaf=0.0748516247
booster[88]:
0:[pt<10.771246] yes=1,no=2,missing=1
	1:leaf=-0.0341727175
	2:[miniIsoNeutral<0.00077232148] yes=5,no=6,missing=5
		5:leaf=0.0117820399
		6:[pt<57.381958] yes=13,no=14,missing=13
			13:leaf=-0.00104339467
			14:leaf=-0.0526552983
booster[89]:
0:[dxylog<-4.89455271] yes=1,no=2,missing=1
	1:[pTRel<4.26473236] yes=3,no=4,missing=3
		3:[pt<24.0907555] yes=7,no=8,missing=7
			7:leaf=0.00405200711
			8:leaf=-0.023189107
		4:[pt<12.2617779] yes=9,no=10,missing=9
			9:leaf=-0.0673411116
			10:leaf=0.0164929237
	2:leaf=-0.0277672019
booster[90]:
0:[miniIsoCharged<0.260535955] yes=1,no=2,missing=1
	1:[puppiCombIso<1.88608122] yes=3,no=4,missing=3
		3:[bTagDeepJetClosestJet<0.312754095] yes=7,no=8,missing=7
			7:leaf=0.00499615399
			8:leaf=-0.0182288792
		4:leaf=0.041987922
	2:leaf=-0.038571272
booster[91]:
0:[puppiCombIso<0.0302561317] yes=1,no=2,missing=1
	1:leaf=0.0245301705
	2:[ptRatio<0.774269938] yes=5,no=6,missing=5
		5:[ptRatio<0.650884211] yes=11,no=12,missing=11
			11:leaf=-0.00766003365
			12:leaf=0.0210605934
		6:[eta<1.43260503] yes=13,no=14,missing=13
			13:leaf=-0.00872569438
			14:leaf=-0.0796649083
booster[92]:
0:[eta<-2.34789491] yes=1,no=2,missing=1
	1:leaf=-0.0810695067
	2:[puppiCombIso<0.0618890673] yes=5,no=6,missing=5
		5:[sip3d<1.16832757] yes=9,no=10,missing=9
			9:leaf=0.0588346496
			10:leaf=0.00515197078
		6:[ptRatio<0.776032567] yes=11,no=12,missing=11
			11:leaf=0.00282641756
			12:leaf=-0.022641873
booster[93]:
0:leaf=-0.000110607034
booster[94]:
0:leaf=-9.95648079e-05
booster[95]:
0:leaf=-8.9621979e-05
booster[96]:
0:leaf=-8.0672995e-05
booster[97]:
0:leaf=-7.26285798e-05
booster[98]:
0:leaf=-6.53755997e-05
booster[99]:
0:leaf=-5.88536786e-05
booster[100]:
0:leaf=-5.29768004e-05
booster[101]:
0:leaf=-4.76937967e-05
booster[102]:
0:leaf=-4.29299653e-05
